{
  "metadata": {
    "generation": 2,
    "fitness": 70092.06000000004,
    "score": 63,
    "survival_time": 118.20100000000069,
    "saved_by": "FlappyBird AI Training"
  },
  "layers": [
    {
      "input_size": 8,
      "output_size": 16,
      "activation": "relu",
      "weights": [
        [
          0.18557290076071517,
          -0.9340463183812829,
          -0.09375999475371277,
          -0.9499645415081627,
          -0.43613808258206926,
          0.2460638299089587,
          1.1447159425759315,
          -0.9663653649503854
        ],
        [
          0.8792042669448519,
          0.6822584294916266,
          0.3789180333971173,
          -0.031055921148583784,
          -1.5123044184613184,
          1.0241654419585149,
          -0.24376204060505863,
          -0.0525859410865457
        ],
        [
          -0.6468187063027655,
          -0.7177995471786697,
          -1.3912853114243242,
          -1.2189558027099183,
          -0.562406620154933,
          -0.3964786696179084,
          -0.32878597921391034,
          -0.1844297730290682
        ],
        [
          -0.41620369279647407,
          0.3814438535219763,
          1.6378386130225222,
          -0.1935510152953298,
          0.10594358632508388,
          0.3777431201650582,
          -0.010040031557615625,
          -0.33131415434607286
        ],
        [
          -0.084633947805037,
          -0.876519149747915,
          1.1840992110629545,
          0.04410355150117662,
          -0.19343426277447467,
          -0.8378354985674674,
          0.21901519161427685,
          -1.6651011293296032
        ],
        [
          0.14409235780203772,
          -0.2386530351009419,
          -0.14868873543748562,
          -0.537516455253349,
          0.1862428128425132,
          0.9931336936295087,
          0.21124249625774236,
          0.35560080848383263
        ],
        [
          -0.6655098682727438,
          1.118221898475098,
          1.246247605957844,
          -0.7800035591578005,
          -0.3418842537638296,
          0.15799511035705413,
          0.27463841102130565,
          0.13191499521431
        ],
        [
          -0.3269233516470282,
          -0.6593095341899143,
          1.3981342426879173,
          -1.1231850270588175,
          -0.40973585596755463,
          -0.722098372938721,
          0.30474258544978966,
          0.21542467362833626
        ],
        [
          -0.24914926050096464,
          -0.9078059315208095,
          0.6833010993584568,
          0.7129767323146496,
          0.4569083699265438,
          0.022559142557428524,
          -0.8365057946553927,
          -0.3959000524642834
        ],
        [
          -0.2840105161843284,
          1.3567373963793306,
          0.27382504165037524,
          -0.31574053880811054,
          -1.097004216604862,
          0.017599034247843467,
          0.9313664413551999,
          -0.4721022164566845
        ],
        [
          -0.5931532828866053,
          -0.04740477561381671,
          0.008380305788849851,
          0.5073103518437776,
          -0.5180584458205294,
          -0.6631343101279906,
          -1.0246323117761766,
          -0.20963669098400578
        ],
        [
          0.1486119692608689,
          0.7754531459349825,
          -0.25907219279667576,
          -0.3984782761552621,
          0.5643144376087618,
          -0.9484685107487586,
          -0.2502788390067423,
          0.006501580803590493
        ],
        [
          0.46430533686576214,
          0.2397664900180292,
          -0.6072691825856689,
          -0.03596145374952669,
          0.7591384246247362,
          -0.5640409455025966,
          -0.33393691386196617,
          0.7116089232689355
        ],
        [
          -0.13713274859444158,
          0.24482817480425312,
          1.4060477815503276,
          0.3160688648509099,
          -0.5673366335952332,
          0.43958755100547253,
          0.2492863194218783,
          -0.8555584815273962
        ],
        [
          -0.1246517056381325,
          -1.760939935328881,
          -0.02995881450759863,
          0.4278621178812442,
          1.410022041848364,
          0.2920565805669404,
          0.495155645261258,
          -0.27383916273920006
        ],
        [
          -0.12804944763314696,
          0.681968247640509,
          -1.4629442189815196,
          -0.171651944647684,
          0.4322075160101805,
          -1.2593733482737473,
          0.03535616314672688,
          0.674792221493369
        ]
      ],
      "biases": [
        0.4870959440152364,
        -0.2114332026126447,
        -0.3816773805805197,
        0.3944802512952773,
        -1.121391870944214,
        0.08632958530744739,
        0.8075358004713142,
        1.2307620224392997,
        0.8941572283061343,
        -1.1392418881223016,
        -0.09305125927139896,
        0.3972499297395594,
        -0.07689474988685528,
        -0.8929703906934038,
        -0.020483748856144623,
        0.9748446994254114
      ]
    },
    {
      "input_size": 16,
      "output_size": 12,
      "activation": "relu",
      "weights": [
        [
          -0.8216673519213524,
          1.4090531836388944,
          1.0964989836871648,
          -0.3816785239473105,
          -0.3303687573153824,
          -0.7926111723883974,
          0.14382513490677207,
          -0.3136028074531916,
          -0.14815117981761816,
          -0.35687886670084634,
          0.5788280478741795,
          0.7047693687765342,
          0.25000283093768594,
          -1.3280850707222214,
          -0.18625823609290565,
          -0.20197387089094088
        ],
        [
          0.7407878525099401,
          -0.16642614198775843,
          -0.5713087813189204,
          0.6976711286205467,
          -1.6800579452048483,
          0.40687063476188007,
          0.06762711445585806,
          0.6294347454236383,
          0.0666907409541689,
          0.010666812305745288,
          -0.23517471757850805,
          -0.38148347816972633,
          1.1010470595930741,
          0.7524845173974755,
          0.4550773529241968,
          -0.5608152865647666
        ],
        [
          0.1888926579371883,
          0.1744588825222551,
          -0.03670357755617948,
          0.39286226521839174,
          -0.5847211933866,
          1.279848616927812,
          -0.07896845675587358,
          0.19858954964311454,
          0.5113237317581891,
          0.7275284613953059,
          -0.07476447683891829,
          0.18988101103577393,
          0.28530584878788523,
          0.015475011561809443,
          0.9310999965981253,
          0.3123971280553107
        ],
        [
          0.9837191378196881,
          -0.7164377467753902,
          0.34147314650070837,
          0.10813144980101468,
          -0.3393158255487819,
          -0.24794944228553073,
          -0.23878641750472573,
          -0.2607484876161573,
          -1.4361302194230647,
          0.5611665520669653,
          -0.543282789099057,
          0.8715723386626547,
          0.09210450905906782,
          0.07163049193134097,
          0.7215362079891762,
          0.5952003785677569
        ],
        [
          0.30414475893435056,
          -0.46591228432471665,
          -0.20634389439183382,
          -0.18151962170573036,
          0.003714702059802233,
          -0.3649787804462596,
          0.24070435354861802,
          0.10583666272266468,
          0.6072073320407858,
          -0.25076689863089885,
          0.5738264848564787,
          0.3895728186664643,
          0.4164419150771951,
          -0.43758637354387886,
          -0.19965360174094554,
          -0.4763376929427242
        ],
        [
          -0.9883718040988638,
          0.45858703235716647,
          0.18991370707882027,
          0.7875840529129869,
          1.0919137602275644,
          0.46788568298567723,
          1.2472579553860357,
          1.4254026772831014,
          -0.9573871425793155,
          0.9458541683920402,
          0.11919548961566243,
          -0.5570033016498839,
          0.09460558578195441,
          1.424335519021501,
          -1.2906428576979203,
          0.2627985270520938
        ],
        [
          0.494632713488417,
          -0.7496433752639439,
          -0.3757995380001702,
          0.39612656740254176,
          0.6044275426863558,
          1.248596012467214,
          0.919003945192191,
          1.8705304790775843,
          -0.18093675621665956,
          0.10536786341379635,
          0.2955354221962589,
          0.27843942011273387,
          -0.08280792787023003,
          -0.3567774378762424,
          0.03383093937689126,
          0.4077128378301628
        ],
        [
          1.5579533454989756,
          -0.6322779764486773,
          -0.3303593961442967,
          -0.04704682694934951,
          0.47546278816813425,
          1.4157126614183124,
          -0.375458221476922,
          0.5408851631564798,
          -0.6609741713712144,
          0.08989101580245368,
          0.33357864643258167,
          -0.03689470546778708,
          -0.6537718860864971,
          -0.04583038282767987,
          -0.03731140555401519,
          -0.04632436579199825
        ],
        [
          -0.9969598260063939,
          0.7290322894423613,
          -0.36039051467071737,
          0.32303380726486186,
          -0.3311170213824073,
          0.8048306417983344,
          0.3005247598654896,
          -0.6743131480409352,
          0.6511033847920801,
          -0.3327941379268065,
          -0.913663518520267,
          -0.6928215527497792,
          -1.07303165172638,
          -0.24912756083237622,
          0.3081940205443906,
          -0.6753997345210514
        ],
        [
          -0.7683737451225441,
          -1.0384218576283295,
          -0.4856869556542926,
          1.3148007323887585,
          0.03253554663436986,
          -0.4281840867140393,
          0.8328583204585329,
          -0.11091207568543497,
          -0.6542140349182444,
          -0.245636258706737,
          0.8249566764648374,
          -0.9796055882094414,
          -0.5055275515792996,
          0.34592291656119417,
          -1.2594199556984744,
          -0.6375100877235144
        ],
        [
          0.4832679741592336,
          -0.6731060381110409,
          -0.5024044704886792,
          0.39770849879061504,
          -0.4180376287345333,
          0.8016049539082596,
          -0.819724373576148,
          0.30567327031509806,
          -0.08899485297325224,
          -1.618827078714269,
          -0.5997945817685424,
          0.8273891145803082,
          -0.7024669156033858,
          -0.044703670774155296,
          -0.24426094618396682,
          0.7106920075122891
        ],
        [
          0.5961366925992162,
          -0.8944124153291484,
          1.287894678741322,
          -0.31007420059138574,
          1.0322831723709076,
          -0.2624722856525816,
          0.07195145768648961,
          -0.3337004834706168,
          -0.622001302549958,
          0.30399909466606506,
          -0.6340272188572631,
          0.3225576253858401,
          0.2267212375706313,
          -0.5781293618754842,
          -0.28217866409643644,
          -1.2380321724292502
        ]
      ],
      "biases": [
        0.564639815969503,
        0.8332392590280329,
        -0.18674518861373793,
        0.12446990232787422,
        -0.004015894952536396,
        -0.04119960981758053,
        -0.8049213367510089,
        -0.9679966445370074,
        0.8382220458063042,
        1.2932940272895967,
        0.7903474498670198,
        -0.3928137640608763
      ]
    },
    {
      "input_size": 12,
      "output_size": 8,
      "activation": "relu",
      "weights": [
        [
          0.7632411811713966,
          0.28933976465389616,
          -0.5089542853930327,
          -0.8325158443632528,
          0.7645670132445673,
          1.294942726160893,
          0.8674024281048843,
          -0.0223940918718559,
          0.4282174373099579,
          -0.45272823027828596,
          0.25984643503025,
          1.6539230751483542
        ],
        [
          0.3359647887221117,
          0.050402324276681065,
          -0.6433995508734869,
          1.636528333050887,
          -0.6925992054992082,
          -0.08932364364213854,
          -0.5709783445968222,
          0.4902539329349342,
          -0.4553821962946413,
          1.2663246125252487,
          -0.043171762867089084,
          -0.22620263466500007
        ],
        [
          -0.4260476254267261,
          1.1085494653282215,
          0.5513178840080963,
          -0.6860882870063594,
          0.18127960065716703,
          -0.8091039242149547,
          1.219159380967461,
          0.45976514238275157,
          1.2950336609959026,
          -0.5697880216480273,
          -0.6680043659962009,
          -0.7546276130076524
        ],
        [
          0.8928802630650471,
          0.29787897593558377,
          -1.338911181902611,
          0.5590527315255285,
          -1.1439101185108558,
          0.42316659976113796,
          0.5148399989171563,
          0.23146269050688348,
          -0.5364797497015785,
          -0.4943051823543968,
          -0.737863471043716,
          -0.08973393660751217
        ],
        [
          1.6976228300263836,
          -0.5420078297242013,
          1.469481005224026,
          -0.21924523287891037,
          -0.035068371539268645,
          0.03614835786563728,
          -0.5882999339338031,
          -0.20678531583273496,
          0.8634868593841705,
          0.6166872240292439,
          1.0510017665512144,
          -1.0579090457774232
        ],
        [
          -0.1423689658967015,
          1.2201495186658025,
          -0.3366754348913344,
          -0.18704475237161655,
          0.16365451745015258,
          -0.4480319260346736,
          0.692698124008397,
          -0.5672317441272468,
          1.9809288103687395,
          0.5442121483877002,
          -0.9827451550236583,
          0.3793780079698962
        ],
        [
          0.2420301490132687,
          -1.0649321669576306,
          -0.14410136370941898,
          0.32377276783054487,
          0.27884035039084354,
          0.3061320477403151,
          -0.0652952901948994,
          1.2948575368848698,
          -0.1899832839799071,
          -0.23089805624710813,
          -0.5588134247652708,
          0.2736061253516693
        ],
        [
          0.8927331984893071,
          -1.244320095565395,
          -0.09731391279309216,
          0.5584071962483738,
          -0.2740860874769273,
          -0.6049683857576758,
          0.32621709764747253,
          -0.18780178685998042,
          0.3638606048690098,
          0.3564003398861654,
          -0.7567795808667247,
          0.7074043597113367
        ]
      ],
      "biases": [
        0.3305665876118639,
        -0.6413521343305744,
        -0.05841398121598225,
        -1.017870809598124,
        -0.3561332442889251,
        -0.07240630900251713,
        0.6590266287942231,
        0.4473242544047394
      ]
    },
    {
      "input_size": 8,
      "output_size": 2,
      "activation": "sigmoid",
      "weights": [
        [
          -0.6820018792847315,
          0.4270400110383575,
          -1.3655442962582156,
          -0.7717340803301251,
          -0.5277866643483942,
          0.11894440420288516,
          0.20459380616376466,
          -0.4382434261504191
        ],
        [
          1.7545572702336,
          0.2112485361336398,
          -1.2211917826300178,
          0.9187234713782257,
          0.042091029844800315,
          -0.19099585403662434,
          0.5438887790536082,
          -0.6563987964964945
        ]
      ],
      "biases": [
        -0.7808466046502348,
        -1.3558745558104701
      ]
    }
  ],
  "architecture": [
    8,
    16,
    12,
    8,
    2
  ],
  "activations": [
    "relu",
    "relu",
    "relu",
    "sigmoid"
  ],
  "saved_at": "2025-08-14T22:37:39.278791"
}