{
  "metadata": {
    "generation": 62,
    "fitness": 1856625.7000000016,
    "score": 1726,
    "survival_time": 2177.0950000000294,
    "saved_by": "FlappyBird AI Training"
  },
  "layers": [
    {
      "input_size": 8,
      "output_size": 16,
      "activation": "relu",
      "weights": [
        [
          0.18557290076071517,
          -0.9340463183812829,
          -0.09375999475371277,
          -0.9499645415081627,
          -0.43613808258206926,
          0.33785469404611035,
          1.2911400371179833,
          -0.9663653649503854
        ],
        [
          0.8792042669448519,
          0.4870996744657369,
          0.36213164206620885,
          -0.031055921148583784,
          -1.5123044184613184,
          0.761999621180597,
          -0.03729199182617024,
          0.09197667242703707
        ],
        [
          -0.7509349480297292,
          -0.6535992123267348,
          -1.1541577404824808,
          -1.2189558027099183,
          -0.47307454972687585,
          -0.4235672787345122,
          -0.32878597921391034,
          -0.14852274822748956
        ],
        [
          -0.37674248348136186,
          0.2752436071469735,
          1.6378386130225222,
          -0.16375303953645604,
          0.08200916545446718,
          0.3777431201650582,
          0.1462190425864779,
          -0.39125452694846513
        ],
        [
          -0.0762790863003931,
          -0.8921344220905201,
          1.1840992110629545,
          -0.1501147489065916,
          -0.10022263314984342,
          -0.578079022633035,
          0.5692241948864254,
          -1.910422530512566
        ],
        [
          0.3002499295554731,
          -0.2386530351009419,
          -0.6385642342836977,
          -0.5447324156412718,
          0.1862428128425132,
          0.8027098835017736,
          0.008687020796550232,
          0.35560080848383263
        ],
        [
          -0.6655098682727438,
          1.118221898475098,
          1.246247605957844,
          -0.7800035591578005,
          -0.26005520148715844,
          -0.020477172709489427,
          0.37074558699750315,
          0.13191499521431
        ],
        [
          -0.29993298236596855,
          -0.24708931915822827,
          1.0823357287893556,
          -1.0746878034481542,
          -0.40973585596755463,
          -0.722098372938721,
          0.21842209393101739,
          0.3247490994161064
        ],
        [
          -0.3323606463558006,
          -0.7136170784839513,
          0.6833010993584568,
          0.6420717860373606,
          0.3120100503414478,
          -0.1568240417727159,
          -1.0713151197971866,
          -0.6777360184025258
        ],
        [
          -0.44441896582496987,
          1.3567373963793306,
          0.27342018324837275,
          -0.31574053880811054,
          -1.097004216604862,
          0.12176292002562045,
          0.9313664413551999,
          -0.5101897679689612
        ],
        [
          -0.24790708592348426,
          -0.10847652305803075,
          0.008380305788849851,
          0.5073103518437776,
          -0.4875750670061946,
          -0.8673273052095893,
          -0.8962419543069174,
          -0.20963669098400578
        ],
        [
          0.1486119692608689,
          0.49139721092831923,
          -0.3258922604941535,
          -0.8831869946089338,
          0.33924023705471384,
          -0.9484685107487586,
          -0.44871618786530343,
          -0.08764823955265805
        ],
        [
          0.46430533686576214,
          0.2397664900180292,
          -0.45916773057122745,
          -0.03596145374952669,
          0.7409467346997274,
          -0.5813798858999997,
          -0.06433207410629646,
          0.46956102255660137
        ],
        [
          0.05755228777488808,
          0.24482817480425312,
          0.8916649610293692,
          0.3160688648509099,
          -0.5673366335952332,
          0.38900241081666687,
          0.445094548435674,
          -0.3322925194888874
        ],
        [
          -0.1246517056381325,
          -1.760939935328881,
          0.2900044088297733,
          0.6304998100714443,
          1.3334850574714647,
          0.2920565805669404,
          0.495155645261258,
          -0.11387072026860448
        ],
        [
          -0.028672422339481418,
          0.681968247640509,
          -1.309499229666104,
          -0.18533528134699115,
          0.4322075160101805,
          -1.2593733482737473,
          -0.1751206032658461,
          0.674792221493369
        ]
      ],
      "biases": [
        0.4870959440152364,
        -0.369167659968195,
        -0.3816773805805197,
        0.3610871919538544,
        -1.121391870944214,
        0.08632958530744739,
        0.8075358004713142,
        1.419012493009617,
        0.8941572283061343,
        -0.5947181956679646,
        -0.09305125927139896,
        0.25928066793743865,
        -0.1904165636118828,
        -0.8503097275633037,
        -0.020483748856144623,
        0.7615817545731434
      ]
    },
    {
      "input_size": 16,
      "output_size": 12,
      "activation": "relu",
      "weights": [
        [
          -0.8216673519213524,
          1.4090531836388944,
          0.7579795723521408,
          -0.3816785239473105,
          -0.354593772317478,
          -1.0919747663163437,
          0.14382513490677207,
          -0.3136028074531916,
          0.06687212482169172,
          -0.10866066309349887,
          0.4973166953391196,
          0.7956031028578157,
          0.07285678339264816,
          -0.9978760875594127,
          -0.4459420057153921,
          -0.058473448127292854
        ],
        [
          0.7180777028209777,
          -0.16642614198775843,
          -0.806159846574456,
          0.6976711286205467,
          -1.6800579452048483,
          0.40687063476188007,
          0.08693914837495925,
          0.3775785630790103,
          0.06471007696440448,
          0.21251771538135422,
          -0.7123067754556514,
          -0.19789174787848865,
          1.1567745015062174,
          0.7524845173974755,
          0.4550773529241968,
          -0.5608152865647666
        ],
        [
          0.05779662846892658,
          -0.16744243807826517,
          -0.2685535971727301,
          0.39286226521839174,
          -0.7854938760573117,
          1.4666075479216252,
          -0.2828993504661882,
          0.3483770440212184,
          0.5113237317581891,
          0.500662057815992,
          -0.28315165729351044,
          0.18988101103577393,
          0.014023681100145027,
          0.015475011561809443,
          0.9310999965981253,
          0.3123971280553107
        ],
        [
          0.6994020360740248,
          -0.9051315801586789,
          0.33993956694579125,
          0.10813144980101468,
          -0.3285507628844761,
          -0.24794944228553073,
          -0.23878641750472573,
          -0.09694487501556748,
          -1.4361302194230647,
          0.5611665520669653,
          -0.45365961769657687,
          0.8715723386626547,
          -0.0829633632878988,
          0.2565033926493635,
          0.7945401161465236,
          0.6461565998045644
        ],
        [
          0.2267839785424578,
          -0.46591228432471665,
          0.07816847332974589,
          -0.18151962170573036,
          0.003714702059802233,
          -0.11744583751574111,
          -0.09765279796121151,
          0.14776760618352788,
          0.8789665348114385,
          -0.25076689863089885,
          0.5738264848564787,
          0.3895728186664643,
          -0.16477335709979396,
          -0.5145130668780313,
          -0.4094875761373824,
          -0.30530462794574575
        ],
        [
          -0.9883718040988638,
          0.4162759847353443,
          -0.124559916246109,
          0.983384523984314,
          1.2041685980241694,
          0.4955356729520405,
          1.3023761458692338,
          1.2110863591427543,
          -0.469057011863024,
          0.8760064094778539,
          0.056693030847217565,
          -0.5570033016498839,
          0.019402520353153263,
          1.0861560485648067,
          -1.2906428576979203,
          0.2627985270520938
        ],
        [
          0.494632713488417,
          -0.7496433752639439,
          -0.600737046219034,
          0.5208728713600146,
          0.6086076330046951,
          0.8953877622733404,
          0.3828647387168377,
          1.9863682201871011,
          -0.45820220695857167,
          0.10536786341379635,
          0.2510880640841882,
          0.27843942011273387,
          -0.34670470296039957,
          -0.3567774378762424,
          0.11948116323035352,
          0.18582040854163012
        ],
        [
          1.5579533454989756,
          -0.7126379383328275,
          0.0037022299528925717,
          -0.0024595576899401894,
          0.3398694468660989,
          1.4157126614183124,
          -0.375458221476922,
          0.2319680036140289,
          -0.6609741713712144,
          0.1302473933797919,
          -0.40205953767239205,
          -0.018446189628399057,
          -0.6580675213287966,
          0.49224763996719884,
          -0.03731140555401519,
          0.15529460443419676
        ],
        [
          -0.9969598260063939,
          0.7290322894423613,
          -0.36039051467071737,
          0.3499360705346921,
          -0.16804915766373824,
          0.9786256048326463,
          0.22084615625996484,
          -0.6743131480409352,
          0.4128126332770669,
          -0.2564792722824426,
          -0.913663518520267,
          -0.9530090832054146,
          -1.259376123784877,
          -0.3116010823365075,
          0.2014516605907432,
          -0.6753997345210514
        ],
        [
          -0.7683737451225441,
          -0.7039942565088987,
          -0.4856869556542926,
          1.0119888716640986,
          0.03253554663436986,
          -0.15112151601576926,
          0.8328583204585329,
          -0.10007101512454172,
          -0.6263243678585657,
          -0.3664270979732278,
          0.9586530704097481,
          -0.6906785009282156,
          -0.2608338304036544,
          0.3471308730278514,
          -1.2594199556984744,
          -0.6375100877235144
        ],
        [
          0.4832679741592336,
          -0.857750902287782,
          -0.5024044704886792,
          0.19762395004808136,
          -0.164003536093904,
          1.1546060528349724,
          -1.1400173495474248,
          0.2648265236834962,
          -0.08899485297325224,
          -1.6787491579338112,
          -0.6209736552331466,
          0.7063722021971499,
          -0.7024669156033858,
          -0.18028821582188487,
          -0.24426094618396682,
          0.7106920075122891
        ],
        [
          0.2689528175438534,
          -0.8720938382995893,
          1.497612487001891,
          -0.31007420059138574,
          0.6522483033607416,
          -0.2624722856525816,
          0.3690722260766954,
          -0.3337004834706168,
          -0.41451208265539125,
          -0.282335100152186,
          -0.8821129267834275,
          0.3225576253858401,
          0.2267212375706313,
          -0.599023945061114,
          -0.09726509649197718,
          -0.5381373700538297
        ]
      ],
      "biases": [
        0.564639815969503,
        0.6736946741053033,
        -0.18674518861373793,
        -0.004840981862265448,
        -0.2579492830691919,
        -0.4937225545008315,
        -0.1289710289599799,
        -1.1065072500239348,
        0.8382220458063042,
        1.231434454293506,
        0.7903474498670198,
        -0.3928137640608763
      ]
    },
    {
      "input_size": 12,
      "output_size": 8,
      "activation": "relu",
      "weights": [
        [
          0.4845527241554164,
          0.22032929635312173,
          -0.5089542853930327,
          -0.8325158443632528,
          0.7645670132445673,
          1.3974778158683212,
          0.8674024281048843,
          -0.19914567197893598,
          0.8230441601365681,
          -0.2724417047429252,
          -0.009747186750833498,
          1.3975459108329196
        ],
        [
          0.28781144184583535,
          0.050402324276681065,
          -0.6433995508734869,
          1.7447164069611558,
          -0.36892900811659357,
          -0.054020352727001356,
          -0.47975943027336376,
          0.49571019493513446,
          -0.9883022708867436,
          0.8549400228436842,
          -0.12232898215000054,
          -0.22620263466500007
        ],
        [
          -0.4260476254267261,
          1.1184153207455338,
          1.036051203817191,
          -0.6145896768901133,
          0.18127960065716703,
          -0.670913685518153,
          1.219159380967461,
          0.34984637297913257,
          1.1453634050799333,
          -0.5697880216480273,
          -0.6680043659962009,
          -0.6724969637346864
        ],
        [
          0.5754900557730495,
          0.29787897593558377,
          -0.9456920249113021,
          0.5590527315255285,
          -0.6245444607553697,
          0.48522288753413,
          0.9472448891025564,
          0.23146269050688348,
          -0.7056125219073093,
          -0.4943051823543968,
          -0.6117835863741865,
          0.21505310520417475
        ],
        [
          1.6976228300263836,
          -0.5251752639632044,
          1.1482467277608475,
          0.18370522042319035,
          0.024424628660006664,
          0.031901587178154805,
          -0.7760692058540943,
          -0.20678531583273496,
          0.9655865455375244,
          0.6438189183895028,
          1.343935208595417,
          -1.1206694351720887
        ],
        [
          0.025338848081852494,
          1.4708829650422106,
          -0.3366754348913344,
          -0.2749338071886317,
          0.15896064468960852,
          -0.4480319260346736,
          0.692698124008397,
          -0.5463029868361023,
          1.7011589854048852,
          0.5354432308013615,
          -0.8935708610721362,
          0.06225742891233866
        ],
        [
          0.2420301490132687,
          -0.6942776598787058,
          -0.14410136370941898,
          0.19242284282951558,
          0.7501221949113617,
          0.3061320477403151,
          -0.12573550664132457,
          1.2948575368848698,
          -0.1899832839799071,
          -0.34229437942878116,
          -0.962987097883221,
          -0.03377693471799434
        ],
        [
          0.8927331984893071,
          -1.244320095565395,
          0.05321450257059518,
          0.4657333542002253,
          -0.14730273953693773,
          -0.21764099526103242,
          0.24588119536487116,
          -0.38031546237276104,
          0.2645686734499433,
          0.6343187273065892,
          -0.7914006455356148,
          0.606843154369938
        ]
      ],
      "biases": [
        0.21069117061692885,
        -0.6462139962241695,
        -0.15383069580189834,
        -0.8705107461368473,
        -0.3561332442889251,
        -0.07240630900251713,
        0.4833413206924795,
        0.380808944846094
      ]
    },
    {
      "input_size": 8,
      "output_size": 2,
      "activation": "sigmoid",
      "weights": [
        [
          -0.6820018792847315,
          0.75526988436375,
          -0.9736576869720577,
          -0.8305345233792946,
          -0.5277866643483942,
          0.3435096053342722,
          0.3869411715578091,
          -0.5790122518081318
        ],
        [
          1.8143627758348682,
          0.2112485361336398,
          -1.3085803376982832,
          0.494107491457334,
          0.042091029844800315,
          -0.19099585403662434,
          0.5438887790536082,
          -0.5776282392157346
        ]
      ],
      "biases": [
        -0.9195106444197815,
        -0.9210777633568017
      ]
    }
  ],
  "architecture": [
    8,
    16,
    12,
    8,
    2
  ],
  "activations": [
    "relu",
    "relu",
    "relu",
    "sigmoid"
  ],
  "saved_at": "2025-08-14T22:17:07.783702"
}